tree
version=v4
num_class=3
num_tree_per_iteration=3
label_index=0
max_feature_idx=15
objective=multiclass num_class:3
feature_names=Column_0 Column_1 Column_2 Column_3 Column_4 Column_5 Column_6 Column_7 Column_8 Column_9 Column_10 Column_11 Column_12 Column_13 Column_14 Column_15
feature_infos=[-11.558652208374939:14.445920089649185] [-0.57892718443408153:1.0525916261159727] [-0.5569262200979247:1.0508599133105607] [-0.5392929874710044:1.0354810885576347] [-10.10466404076012:6.261198245403202] [-1.567067147142331:1.5552550742736919] [-2.0552850998568766:2.2612750274645523] [-8.7624370482013649:6.3905708406721304] [-8.5794227570159904:7.6500376523165858] [-1.8457791764121261:2.0085615056821036] [-1.3278464307142515:9.5749010197977498] [-11.341648995883702:7.8879880254460213] [-9.6894531249999645:6.0671874999998341] [-1.0674221704729996:1.1956182789743919] [-0.68113294686685977:2.5080098972736402] [-0.68263153298874391:2.3053013008183898]
tree_sizes=2641 354 2647

Tree=0
num_leaves=24
num_cat=0
split_feature=4 10 9 8 4 3 11 10 2 7 3 3 2 6 10 3 13 3 4 8 7 13 12
split_gain=28.5209 12.6286 11.8233 9.00171 10.4646 9.30107 6.7466 6.7097 6.83222 6.55216 6.46435 7.85382 6.28835 5.66327 5.52624 4.99891 4.75402 4.70143 4.51916 3.38217 3.06109 3.06863 3.02316
threshold=-0.8116868238687468 0.45144571085795654 -0.64369992539853771 0.82206967527958175 1.6351505994980637 -0.18087090998913027 -0.60720967943104387 -0.21864427114552606 -0.25632373644677525 0.22138269967533256 -0.32795748799977215 -0.35913976160917999 0.012415583745750625 -1.135108155953451 0.2830953809238364 0.22503213627453797 0.26571053859093602 0.58665861176416778 -1.621687675696355 -0.85405988571535796 -1.5581820117150411 -0.45614230214645707 -1.2947265625001865
decision_type=2 2 2 2 2 2 2 2 2 2 2 2 2 2 2 2 2 2 2 2 2 2 2
left_child=6 2 7 4 17 9 12 8 -2 -5 11 -4 18 -8 -12 -7 -9 -3 -1 -20 -15 -22 -14
right_child=1 3 10 5 -6 15 13 16 -10 -11 14 -13 22 20 -16 -17 -18 -19 19 -21 21 -23 -24
leaf_value=-0.71507287551777932 -0.70979016614363 -0.68735696908933586 -0.68458649303388019 -0.72102857967964462 -0.66772772793475876 -0.6861290305802018 -0.68107587444528961 -0.6776835758955817 -0.69215350180955881 -0.69734160282334579 -0.68376916757150941 -0.70149163702249895 -0.68400614017701244 -0.70393274429655206 -0.6765855939140315 -0.69876930980115581 -0.69203462402361759 -0.69905920950109368 -0.69372190701452596 -0.70678410219787302 -0.70010612725116173 -0.68940921010270317 -0.69868705367731743
leaf_weight=26.999062299728394 23.999166488647461 218.24242025613785 65.622720867395401 19.499322772026062 22.499218583106995 62.997812032699585 36.748723685741425 43.87347623705864 115.49598872661591 23.999166488647461 1190.5836500227451 39.373632520437241 24.749140441417694 24.374153465032578 105.37134036421776 50.248254835605621 38.998645544052124 35.998749732971191 35.623762756586075 37.873684614896774 32.998853921890259 92.996770143508911 25.124127417802811
leaf_count=72 64 582 175 52 60 168 98 117 308 64 3175 105 66 65 281 134 104 96 95 101 88 248 67
internal_value=-0.687325 -0.686 -0.684784 -0.690546 -0.687281 -0.696287 -0.695408 -0.691203 -0.695223 -0.708082 -0.683763 -0.690905 -0.700148 -0.691578 -0.683182 -0.691716 -0.684471 -0.68903 -0.704477 -0.700511 -0.694167 -0.692243 -0.69135
internal_weight=2394.29 2056.8 1623.32 433.485 276.74 156.745 337.488 222.367 139.495 43.4985 1400.95 104.996 150.37 187.119 1295.95 113.246 82.8721 254.241 100.497 73.4974 150.37 125.996 49.8733
internal_count=6385 5485 4329 1156 738 418 900 593 372 116 3736 280 401 499 3456 302 221 678 268 196 401 336 133
is_linear=0
shrinkage=1


Tree=1
num_leaves=2
num_cat=0
split_feature=9
split_gain=7.41054
threshold=1.2277996001981986
decision_type=2
left_child=-1
right_child=-2
leaf_value=-9.0004371119406201 -8.7471919328401846
leaf_weight=1.187703677875106 0.012785159109626076
leaf_count=6317 68
internal_value=-8.98202
internal_weight=1.20049
internal_count=6385
is_linear=0
shrinkage=1


Tree=2
num_leaves=24
num_cat=0
split_feature=4 10 5 8 4 3 11 7 2 3 7 15 6 10 6 5 3 4 8 0 7 12 5
split_gain=28.6094 12.7098 12.2116 9.00165 10.4648 9.30099 6.74653 6.55206 6.28828 5.96099 5.9082 5.80718 5.66336 5.4314 5.42448 5.22954 4.99898 4.51905 3.38208 3.07795 3.061 3.02323 2.44047
threshold=-0.8116868238687468 0.45144571085795654 -0.41045940094892669 0.82206967527958175 1.6351505994980637 -0.18087090998913027 -0.60720967943104387 0.22138269967533256 0.012415583745750625 -0.31195691310643209 -0.26400289744221034 1.1730842020219205 -1.135108155953451 -0.21864427114552606 0.13221681321110632 -0.47746209412392254 0.22503213627453797 -1.621687675696355 -0.85405988571535796 -0.03679854571421997 -1.5581820117150411 -1.2947265625001865 -0.70732044207233213
decision_type=2 2 2 2 2 2 2 2 2 2 2 2 2 2 2 2 2 2 2 2 2 2 2
left_child=6 2 11 4 15 7 8 -5 17 10 -4 13 -8 -2 -11 -3 -7 -1 -19 -13 -14 -10 -22
right_child=1 3 9 5 -6 16 12 -9 21 14 -12 19 20 -15 -16 -17 -18 18 -20 -21 22 -23 -24
leaf_value=-0.67149836450239619 -0.69313061909491591 -0.70626141635179607 -0.70661708958028879 -0.66554265690506764 -0.71884366045174841 -0.70044227455483909 -0.70549545707664951 -0.68922969464218842 -0.70256519573603693 -0.70167255033029274 -0.69169181805993363 -0.69968855816674025 -0.68263853290131138 -0.70058410336024257 -0.70589016287266393 -0.69541648114900656 -0.68780196163862384 -0.69284938765958137 -0.67978715185367888 -0.71685435183140878 -0.68756941536076099 -0.68788423791917097 -0.69695857318474963
leaf_weight=26.998980760574341 219.36671867966652 49.498131394386292 35.248669326305389 19.499263882637024 22.499150633811951 62.997621774673462 36.748612701892853 23.999094009399414 24.749065697193146 510.35573354363441 72.747253715991974 19.124278038740158 24.37407985329628 145.86949327588081 601.47729361057281 204.74227076768875 50.248103082180023 35.623655170202255 37.87357023358345 19.124278038740158 34.873683482408524 25.124051541090012 91.1215600669384
leaf_count=72 585 132 94 52 60 168 98 64 66 1361 194 51 65 389 1604 546 134 95 101 51 93 67 243
internal_value=-0.699259 -0.700586 -0.701805 -0.696026 -0.699291 -0.690284 -0.691163 -0.678489 -0.686423 -0.703303 -0.696593 -0.697287 -0.694993 -0.696115 -0.703957 -0.697542 -0.694855 -0.682094 -0.68606 -0.708373 -0.692404 -0.695221 -0.694329
internal_weight=2394.28 2056.8 1623.31 433.484 276.74 156.744 337.487 43.4984 150.369 1219.83 107.996 403.485 187.118 365.236 1111.83 254.24 113.246 100.496 73.4972 38.2486 150.369 49.8731 125.995
internal_count=6385 5485 4329 1156 738 418 900 116 401 3253 288 1076 499 974 2965 678 302 268 196 102 401 133 336
is_linear=0
shrinkage=1


end of trees

feature_importances:
Column_3=8
Column_4=6
Column_7=5
Column_10=5
Column_8=4
Column_2=3
Column_5=3
Column_6=3
Column_9=2
Column_11=2
Column_12=2
Column_13=2
Column_0=1
Column_15=1

parameters:
[boosting: gbdt]
[objective: multiclass]
[metric: multi_logloss]
[tree_learner: serial]
[device_type: cpu]
[data_sample_strategy: bagging]
[data: ]
[valid: ]
[num_iterations: 500]
[learning_rate: 0.03]
[num_leaves: 31]
[num_threads: 0]
[seed: 0]
[deterministic: 0]
[force_col_wise: 0]
[force_row_wise: 0]
[histogram_pool_size: -1]
[max_depth: 5]
[min_data_in_leaf: 50]
[min_sum_hessian_in_leaf: 0.001]
[bagging_fraction: 0.8]
[pos_bagging_fraction: 1]
[neg_bagging_fraction: 1]
[bagging_freq: 5]
[bagging_seed: 3]
[bagging_by_query: 0]
[feature_fraction: 0.8]
[feature_fraction_bynode: 1]
[feature_fraction_seed: 2]
[extra_trees: 0]
[extra_seed: 6]
[early_stopping_round: 0]
[early_stopping_min_delta: 0]
[first_metric_only: 0]
[max_delta_step: 0]
[lambda_l1: 0.1]
[lambda_l2: 0.1]
[linear_lambda: 0]
[min_gain_to_split: 0.01]
[drop_rate: 0.1]
[max_drop: 50]
[skip_drop: 0.5]
[xgboost_dart_mode: 0]
[uniform_drop: 0]
[drop_seed: 4]
[top_rate: 0.2]
[other_rate: 0.1]
[min_data_per_group: 100]
[max_cat_threshold: 32]
[cat_l2: 10]
[cat_smooth: 10]
[max_cat_to_onehot: 4]
[top_k: 20]
[monotone_constraints: ]
[monotone_constraints_method: basic]
[monotone_penalty: 0]
[feature_contri: ]
[forcedsplits_filename: ]
[refit_decay_rate: 0.9]
[cegb_tradeoff: 1]
[cegb_penalty_split: 0]
[cegb_penalty_feature_lazy: ]
[cegb_penalty_feature_coupled: ]
[path_smooth: 0]
[interaction_constraints: ]
[verbosity: -1]
[saved_feature_importance_type: 0]
[use_quantized_grad: 0]
[num_grad_quant_bins: 4]
[quant_train_renew_leaf: 0]
[stochastic_rounding: 1]
[linear_tree: 0]
[max_bin: 255]
[max_bin_by_feature: ]
[min_data_in_bin: 3]
[bin_construct_sample_cnt: 200000]
[data_random_seed: 1]
[is_enable_sparse: 1]
[enable_bundle: 1]
[use_missing: 1]
[zero_as_missing: 0]
[feature_pre_filter: 1]
[pre_partition: 0]
[two_round: 0]
[header: 0]
[label_column: ]
[weight_column: ]
[group_column: ]
[ignore_column: ]
[categorical_feature: ]
[forcedbins_filename: ]
[precise_float_parser: 0]
[parser_config_file: ]
[objective_seed: 5]
[num_class: 3]
[is_unbalance: 0]
[scale_pos_weight: 1]
[sigmoid: 1]
[boost_from_average: 1]
[reg_sqrt: 0]
[alpha: 0.9]
[fair_c: 1]
[poisson_max_delta_step: 0.7]
[tweedie_variance_power: 1.5]
[lambdarank_truncation_level: 30]
[lambdarank_norm: 1]
[label_gain: ]
[lambdarank_position_bias_regularization: 0]
[eval_at: ]
[multi_error_top_k: 1]
[auc_mu_weights: ]
[num_machines: 1]
[local_listen_port: 12400]
[time_out: 120]
[machine_list_filename: ]
[machines: ]
[gpu_platform_id: -1]
[gpu_device_id: -1]
[gpu_use_dp: 0]
[num_gpu: 1]

end of parameters

pandas_categorical:null
