tree
version=v4
num_class=3
num_tree_per_iteration=3
label_index=0
max_feature_idx=39
objective=multiclass num_class:3
feature_names=Column_0 Column_1 Column_2 Column_3 Column_4 Column_5 Column_6 Column_7 Column_8 Column_9 Column_10 Column_11 Column_12 Column_13 Column_14 Column_15 Column_16 Column_17 Column_18 Column_19 Column_20 Column_21 Column_22 Column_23 Column_24 Column_25 Column_26 Column_27 Column_28 Column_29 Column_30 Column_31 Column_32 Column_33 Column_34 Column_35 Column_36 Column_37 Column_38 Column_39
feature_infos=[-11.153324218730857:14.573994400579346] [-11.136425728590478:14.602841615567391] [-0.54953713281868599:1.0030407957192509] [-0.52675929412582123:0.9996484374382939] [-0.50731156023935942:0.98574941977827302] [-0.47199455174440402:0.95691128350926868] [-5.9381225495078365:6.5489133309358705] [-5.13631851460935:6.170839055841336] [-3.9902862427139247:5.1999980833182109] [-1.5562390184316901:1.5443764316687631] [-1.9240567402905433:2.216009056422704] [-2.0097991601600058:2.3281408199562819] [-4.80325083891994:6.2540647590306424] [-4.4601022347514032:6.1685136074625078] [-5.28585189321399:7.5465548037536712] [-0.51450673182045359:1.0014806951153881] [-0.51676096392338733:0.99478734153019943] [-0.53140085816483507:1.0086703381059869] [-0.88683934481350379:8.7726509485332933] [-1.8297326582753397:1.9909645313471145] [-1.1743058354868137:9.4472766936172423] [-1.2287961390651325:11.042541782106621] [-2.5711416299215135:4.5521710162689164] [-1.3545096328559831:3.4674979550667349] [-1.0602103904596452:0.90162407113739385] [-1.1032231559120935:0.95125744357096886] [-3.4645488709545491:3.2675663653104552] [-6.4286109191425957:7.2371803731854278] [-6.4553990617310664:7.2936796733526101] [-1.0602103904596452:0.90162407113739385] [-2.2261059304236341:3.09053053522624] [-1.0518134715025906:15.077720207253886] [-0.89710656316160908:8.4937191249117827] [-2.4925384753511248:14.010962085171018] [-0.88988107917378423:8.7265400983857795] [0:1] [0:1] [-0.69090909090946173:19.566060606080885] [-0.64897466827616435:13.971049457187855] [-0.66743648960894741:18.946882217089748]
tree_sizes=4310 243 4313

Tree=0
num_leaves=40
num_cat=0
split_feature=8 32 34 32 24 18 13 23 17 32 7 24 32 2 7 15 7 13 26 27 6 5 18 11 25 32 16 24 11 5 32 14 19 38 22 34 22 8 8
split_gain=26.015 22.806 16.3521 15.3382 16.2561 14.8418 12.9696 11.4172 10.8576 9.62147 12.6411 13.591 11.2565 10.4928 8.92212 8.98638 8.92162 8.875 8.55916 7.65599 10.32 7.56458 12.4372 9.32619 7.40373 7.19923 10.283 7.11139 7.01607 6.01806 5.96347 5.01584 8.04906 4.80178 3.45728 2.89512 5.32501 1.95055 1.94805
threshold=-0.51047549022247363 1.8793225123500348 2.280147678342427 0.33874382498235694 -0.4185299796124769 -0.09509840736718464 1.0962088417773221 0.899232190576428 -0.2178513040198447 0.70303458009880015 -0.087164337825422697 -0.57279125233786543 0.14975299929428357 -0.15909187435214336 0.20332563520294325 0.0510910185625012 0.44831619376041348 -0.69191951620325975 -0.58284188068580767 2.3440221147198992 1.5382420355482058 -0.16875599830415214 0.33541421864079596 -0.7478130093328289 0.75783601432775805 0.051517290049399984 0.030159863595540782 0.48786010019007164 -0.022470823943848809 0.078912409173708106 -0.20225829216654909 0.66861052846514413 -0.60584324912304532 1.156815440289227 0.097715333059461465 0.13751119371247181 0.11334380526590698 -0.3219500692109975 0.77043422955440855
decision_type=2 2 2 2 2 2 2 2 2 2 2 2 2 2 2 2 2 2 2 2 2 2 2 2 2 2 2 2 2 2 2 2 2 2 2 2 2 2 2
left_child=9 2 3 4 5 -2 14 -6 37 10 11 25 13 -13 15 -3 21 -14 -10 20 29 31 27 -24 -16 30 -27 -23 -17 -8 -1 32 -11 -21 -22 36 -12 -5 -4
right_child=1 6 38 8 7 -7 19 -9 18 16 35 12 17 -15 24 28 -18 -19 -20 33 34 22 23 -25 -26 26 -28 -29 -30 -31 -32 -33 -34 -35 -36 -37 -38 -39 -40
leaf_value=-0.70263179328755965 -0.68609011440456869 -0.65739191475957481 -0.7597769030071192 -0.652191709775095 -0.67562291058428514 -0.71449093971323163 -0.66304431148183562 -0.69720761063016401 -0.69035617712558006 -0.76187879210025244 -0.68391469937941396 -0.67159000529174939 -0.67373402235620505 -0.7049547652273791 -0.7570062310207164 -0.73705022718761626 -0.6473915205586519 -0.62405726742316503 -0.66429595259703211 -0.68739309736234366 -0.62567637886521932 -0.76099599868113654 -0.71257927534985332 -0.67037114978630463 -0.70029683181514746 -0.70464867951295584 -0.63939120519791359 -0.69699347579522974 -0.67405923842777982 -0.70472711397727683 -0.74038219910229897 -0.76339609328935798 -0.69699347579522974 -0.75025271805385929 -0.67596407541843173 -0.7563613332307777 -0.75215755504451132 -0.61805703090261133 -0.71998697475794438
leaf_weight=31.498758316040039 230.24092388153076 11.999526977539061 7.8746895790100124 9.3746304512023944 703.47226905822754 92.996334075927734 17.249320030212402 100.87102365493774 60.747605323791504 10.874571323394774 8.6246600151062065 60.747605323791504 46.123181819915771 76.871969699859619 28.873861789703369 21.749142646789551 7.4997043609619132 17.999290466308594 179.24293422698975 7.4997043609619167 13.124482631683351 18.749260902404789 40.498403549194336 35.248610496520996 11.624541759490965 38.248492240905762 11.249556541442869 9.3746304512023908 8.9996452331542987 44.998226165771484 28.873861789703369 14.999408721923826 18.749260902404789 10.499586105346678 7.8746895790100089 10.874571323394774 7.8746895790100089 16.874334812164307 10.124600887298582
leaf_count=84 614 32 21 25 1876 248 46 269 162 29 23 162 123 205 77 58 20 48 478 20 35 50 108 94 31 102 30 25 24 120 77 40 50 28 21 29 21 45 27
internal_value=-0.686891 -0.683165 -0.680572 -0.679838 -0.682897 -0.694261 -0.703003 -0.67833 -0.666885 -0.698909 -0.693234 -0.6898 -0.680553 -0.690227 -0.720548 -0.701429 -0.71124 -0.65979 -0.670892 -0.688578 -0.680906 -0.714465 -0.705589 -0.692938 -0.740729 -0.70678 -0.689817 -0.739662 -0.718614 -0.693176 -0.720686 -0.735126 -0.720812 -0.724061 -0.644534 -0.732326 -0.716485 -0.630248 -0.737395
internal_weight=2091.29 1596.31 1411.82 1393.82 1127.58 323.237 184.493 804.343 266.24 494.98 338.987 311.613 201.742 137.62 83.2467 42.7483 155.994 64.1225 239.991 101.246 83.2467 148.494 103.871 75.747 40.4984 109.871 49.498 28.1239 30.7488 62.2475 60.3726 44.6232 29.6238 17.9993 20.9992 27.3739 16.4993 26.249 17.9993
internal_count=5577 4257 3765 3717 3007 862 492 2145 710 1320 904 831 538 367 222 114 416 171 640 270 222 396 277 202 108 293 132 75 82 166 161 119 79 48 56 73 44 70 48
is_linear=0
shrinkage=1


Tree=1
num_leaves=1
num_cat=0
split_feature=
split_gain=
threshold=
decision_type=
left_child=
right_child=
leaf_value=-34.538776391283193
leaf_weight=
leaf_count=5577
internal_value=
internal_weight=
internal_count=
is_linear=0
shrinkage=1


Tree=2
num_leaves=40
num_cat=0
split_feature=8 32 34 32 24 18 13 23 17 32 7 24 32 2 7 15 7 13 26 27 6 5 18 11 25 32 16 24 11 5 32 14 19 38 22 34 22 8 8
split_gain=26.015 22.806 16.3521 15.3382 16.2561 14.8418 12.9696 11.4172 10.8576 9.62147 12.6411 13.591 11.2565 10.4928 8.92212 8.98638 8.92162 8.875 8.55916 7.65599 10.32 7.56458 12.4372 9.32619 7.40373 7.19923 10.283 7.11139 7.01607 6.01806 5.96347 5.01584 8.04906 4.80178 3.45728 2.89512 5.32501 1.95055 1.94805
threshold=-0.51047549022247363 1.8793225123500348 2.280147678342427 0.33874382498235694 -0.4185299796124769 -0.09509840736718464 1.0962088417773221 0.899232190576428 -0.2178513040198447 0.70303458009880015 -0.087164337825422697 -0.57279125233786543 0.14975299929428357 -0.15909187435214336 0.20332563520294325 0.0510910185625012 0.44831619376041348 -0.69191951620325975 -0.58284188068580767 2.3440221147198992 1.5382420355482058 -0.16875599830415214 0.33541421864079596 -0.7478130093328289 0.75783601432775805 0.051517290049399984 0.030159863595540782 0.48786010019007164 -0.022470823943848809 0.078912409173708106 -0.20225829216654909 0.66861052846514413 -0.60584324912304532 1.156815440289227 0.097715333059461465 0.13751119371247181 0.11334380526590698 -0.3219500692109975 0.77043422955440855
decision_type=2 2 2 2 2 2 2 2 2 2 2 2 2 2 2 2 2 2 2 2 2 2 2 2 2 2 2 2 2 2 2 2 2 2 2 2 2 2 2
left_child=9 2 3 4 5 -2 14 -6 37 10 11 25 13 -13 15 -3 21 -14 -10 20 29 31 27 -24 -16 30 -27 -23 -17 -8 -1 32 -11 -21 -22 36 -12 -5 -4
right_child=1 6 38 8 7 -7 19 -9 18 16 35 12 17 -15 24 28 -18 -19 -20 33 34 22 23 -25 -26 26 -28 -29 -30 -31 -32 -33 -34 -35 -36 -37 -38 -39 -40
leaf_value=-0.68370195396616307 -0.70024363284915403 -0.7289418324941479 -0.62655684424660352 -0.73414203747862772 -0.71071083666943757 -0.67184280754049108 -0.72328943577188709 -0.6891261366235587 -0.69597757012814265 -0.62445495515347027 -0.70241904787430876 -0.71474374196197332 -0.71259972489751766 -0.68137898202634362 -0.62932751623300631 -0.64928352006610646 -0.73894222669507081 -0.76227647983055768 -0.7220377946566906 -0.69894064989137905 -0.7606573683885034 -0.62533774857258617 -0.67375447190386939 -0.71596259746741808 -0.68603691543857526 -0.68168506774076687 -0.74694254205580912 -0.68934027145849297 -0.7122745088259429 -0.68160663327644588 -0.64595154815142375 -0.62293765396436473 -0.68934027145849297 -0.63608102919986342 -0.71036967183529098 -0.62997241402294502 -0.6341761922092114 -0.76827671635111139 -0.66634677249577834
leaf_weight=31.498758316040039 230.24092388153076 11.999526977539061 7.8746895790100124 9.3746304512023944 703.47226905822754 92.996334075927734 17.249320030212402 100.87102365493774 60.747605323791504 10.874571323394774 8.6246600151062065 60.747605323791504 46.123181819915771 76.871969699859619 28.873861789703369 21.749142646789551 7.4997043609619132 17.999290466308594 179.24293422698975 7.4997043609619167 13.124482631683351 18.749260902404789 40.498403549194336 35.248610496520996 11.624541759490965 38.248492240905762 11.249556541442869 9.3746304512023908 8.9996452331542987 44.998226165771484 28.873861789703369 14.999408721923826 18.749260902404789 10.499586105346678 7.8746895790100089 10.874571323394774 7.8746895790100089 16.874334812164307 10.124600887298582
leaf_count=84 614 32 21 25 1876 248 46 269 162 29 23 162 123 205 77 58 20 48 478 20 35 50 108 94 31 102 30 25 24 120 77 40 50 28 21 29 21 45 27
internal_value=-0.699443 -0.703169 -0.705762 -0.706495 -0.703437 -0.692073 -0.68333 -0.708004 -0.719449 -0.687425 -0.6931 -0.696534 -0.705781 -0.696107 -0.665786 -0.684905 -0.675094 -0.726544 -0.715441 -0.697755 -0.705427 -0.671869 -0.680745 -0.693396 -0.645605 -0.679554 -0.696516 -0.646672 -0.66772 -0.693157 -0.665647 -0.651208 -0.665522 -0.662273 -0.741799 -0.654007 -0.669849 -0.756086 -0.648939
internal_weight=2091.29 1596.31 1411.82 1393.82 1127.58 323.237 184.493 804.343 266.24 494.98 338.987 311.613 201.742 137.62 83.2467 42.7483 155.994 64.1225 239.991 101.246 83.2467 148.494 103.871 75.747 40.4984 109.871 49.498 28.1239 30.7488 62.2475 60.3726 44.6232 29.6238 17.9993 20.9992 27.3739 16.4993 26.249 17.9993
internal_count=5577 4257 3765 3717 3007 862 492 2145 710 1320 904 831 538 367 222 114 416 171 640 270 222 396 277 202 108 293 132 75 82 166 161 119 79 48 56 73 44 70 48
is_linear=0
shrinkage=1


end of trees

feature_importances:
Column_32=12
Column_7=6
Column_8=6
Column_24=6
Column_5=4
Column_11=4
Column_13=4
Column_18=4
Column_22=4
Column_34=4
Column_2=2
Column_6=2
Column_14=2
Column_15=2
Column_16=2
Column_17=2
Column_19=2
Column_23=2
Column_25=2
Column_26=2
Column_27=2
Column_38=2

parameters:
[boosting: gbdt]
[objective: multiclass]
[metric: multi_logloss]
[tree_learner: serial]
[device_type: cpu]
[data_sample_strategy: bagging]
[data: ]
[valid: ]
[num_iterations: 350]
[learning_rate: 0.06]
[num_leaves: 40]
[num_threads: 0]
[seed: 0]
[deterministic: 0]
[force_col_wise: 1]
[force_row_wise: 0]
[histogram_pool_size: -1]
[max_depth: 6]
[min_data_in_leaf: 20]
[min_sum_hessian_in_leaf: 0.001]
[bagging_fraction: 1]
[pos_bagging_fraction: 1]
[neg_bagging_fraction: 1]
[bagging_freq: 0]
[bagging_seed: 3]
[bagging_by_query: 0]
[feature_fraction: 1]
[feature_fraction_bynode: 1]
[feature_fraction_seed: 2]
[extra_trees: 0]
[extra_seed: 6]
[early_stopping_round: 0]
[early_stopping_min_delta: 0]
[first_metric_only: 0]
[max_delta_step: 0]
[lambda_l1: 0]
[lambda_l2: 0]
[linear_lambda: 0]
[min_gain_to_split: 0]
[drop_rate: 0.1]
[max_drop: 50]
[skip_drop: 0.5]
[xgboost_dart_mode: 0]
[uniform_drop: 0]
[drop_seed: 4]
[top_rate: 0.2]
[other_rate: 0.1]
[min_data_per_group: 100]
[max_cat_threshold: 32]
[cat_l2: 10]
[cat_smooth: 10]
[max_cat_to_onehot: 4]
[top_k: 20]
[monotone_constraints: ]
[monotone_constraints_method: basic]
[monotone_penalty: 0]
[feature_contri: ]
[forcedsplits_filename: ]
[refit_decay_rate: 0.9]
[cegb_tradeoff: 1]
[cegb_penalty_split: 0]
[cegb_penalty_feature_lazy: ]
[cegb_penalty_feature_coupled: ]
[path_smooth: 0]
[interaction_constraints: ]
[verbosity: -1]
[saved_feature_importance_type: 0]
[use_quantized_grad: 0]
[num_grad_quant_bins: 4]
[quant_train_renew_leaf: 0]
[stochastic_rounding: 1]
[linear_tree: 0]
[max_bin: 255]
[max_bin_by_feature: ]
[min_data_in_bin: 3]
[bin_construct_sample_cnt: 200000]
[data_random_seed: 1]
[is_enable_sparse: 1]
[enable_bundle: 1]
[use_missing: 1]
[zero_as_missing: 0]
[feature_pre_filter: 1]
[pre_partition: 0]
[two_round: 0]
[header: 0]
[label_column: ]
[weight_column: ]
[group_column: ]
[ignore_column: ]
[categorical_feature: ]
[forcedbins_filename: ]
[precise_float_parser: 0]
[parser_config_file: ]
[objective_seed: 5]
[num_class: 3]
[is_unbalance: 0]
[scale_pos_weight: 1]
[sigmoid: 1]
[boost_from_average: 1]
[reg_sqrt: 0]
[alpha: 0.9]
[fair_c: 1]
[poisson_max_delta_step: 0.7]
[tweedie_variance_power: 1.5]
[lambdarank_truncation_level: 30]
[lambdarank_norm: 1]
[label_gain: ]
[lambdarank_position_bias_regularization: 0]
[eval_at: ]
[multi_error_top_k: 1]
[auc_mu_weights: ]
[num_machines: 1]
[local_listen_port: 12400]
[time_out: 120]
[machine_list_filename: ]
[machines: ]
[gpu_platform_id: -1]
[gpu_device_id: -1]
[gpu_use_dp: 0]
[num_gpu: 1]

end of parameters

pandas_categorical:null
